#pragma once
#include <stdarg.h>
namespace Eloquent {
    namespace ML {
        namespace Port {
            class RandomForest {
                public:
                    /**
                    * Predict class for features vector
                    */
                    int predict(double *x) {
                        uint8_t votes[4] = { 0 };
                        // tree #1
                        if (x[35] <= 255.21499633789062) {
                            if (x[40] <= 220.38499450683594) {
                                if (x[22] <= 275.29998779296875) {
                                    if (x[45] <= 125.2599983215332) {
                                        if (x[3] <= 26.714999198913574) {
                                            votes[2] += 1;
                                        }

                                        else {
                                            if (x[9] <= 79.38000106811523) {
                                                votes[3] += 1;
                                            }

                                            else {
                                                votes[1] += 1;
                                            }
                                        }
                                    }

                                    else {
                                        if (x[44] <= 132.83499908447266) {
                                            votes[2] += 1;
                                        }

                                        else {
                                            votes[1] += 1;
                                        }
                                    }
                                }

                                else {
                                    votes[0] += 1;
                                }
                            }

                            else {
                                if (x[26] <= 211.21500396728516) {
                                    if (x[5] <= 33.32499885559082) {
                                        if (x[25] <= 267.9250030517578) {
                                            votes[1] += 1;
                                        }

                                        else {
                                            votes[0] += 1;
                                        }
                                    }

                                    else {
                                        votes[3] += 1;
                                    }
                                }

                                else {
                                    votes[2] += 1;
                                }
                            }
                        }

                        else {
                            if (x[44] <= 181.23500061035156) {
                                if (x[15] <= 107.95000076293945) {
                                    if (x[57] <= 46.94000053405762) {
                                        if (x[28] <= 216.81499481201172) {
                                            votes[1] += 1;
                                        }

                                        else {
                                            votes[2] += 1;
                                        }
                                    }

                                    else {
                                        votes[3] += 1;
                                    }
                                }

                                else {
                                    if (x[13] <= 92.43000030517578) {
                                        if (x[4] <= 33.5) {
                                            votes[1] += 1;
                                        }

                                        else {
                                            votes[3] += 1;
                                        }
                                    }

                                    else {
                                        votes[0] += 1;
                                    }
                                }
                            }

                            else {
                                if (x[48] <= 96.57499694824219) {
                                    votes[2] += 1;
                                }

                                else {
                                    if (x[23] <= 144.38999938964844) {
                                        votes[0] += 1;
                                    }

                                    else {
                                        votes[3] += 1;
                                    }
                                }
                            }
                        }

                        // tree #2
                        if (x[0] <= 23.960000038146973) {
                            if (x[29] <= 178.4250030517578) {
                                if (x[46] <= 141.53499603271484) {
                                    votes[3] += 1;
                                }

                                else {
                                    votes[0] += 1;
                                }
                            }

                            else {
                                if (x[24] <= 181.58499908447266) {
                                    votes[1] += 1;
                                }

                                else {
                                    if (x[11] <= 81.05500030517578) {
                                        if (x[14] <= 101.68999862670898) {
                                            if (x[19] <= 184.67000579833984) {
                                                votes[2] += 1;
                                            }

                                            else {
                                                votes[1] += 1;
                                            }
                                        }

                                        else {
                                            if (x[61] <= 26.335000038146973) {
                                                votes[3] += 1;
                                            }

                                            else {
                                                votes[2] += 1;
                                            }
                                        }
                                    }

                                    else {
                                        if (x[38] <= 228.02999877929688) {
                                            if (x[8] <= 69.03499984741211) {
                                                votes[1] += 1;
                                            }

                                            else {
                                                votes[3] += 1;
                                            }
                                        }

                                        else {
                                            votes[2] += 1;
                                        }
                                    }
                                }
                            }
                        }

                        else {
                            if (x[1] <= 20.079999923706055) {
                                if (x[56] <= 48.595001220703125) {
                                    if (x[60] <= 15.46999979019165) {
                                        votes[0] += 1;
                                    }

                                    else {
                                        votes[2] += 1;
                                    }
                                }

                                else {
                                    if (x[12] <= 98.56500244140625) {
                                        votes[0] += 1;
                                    }

                                    else {
                                        votes[1] += 1;
                                    }
                                }
                            }

                            else {
                                if (x[25] <= 257.9499969482422) {
                                    if (x[27] <= 125.5099983215332) {
                                        votes[2] += 1;
                                    }

                                    else {
                                        if (x[52] <= 76.09500122070312) {
                                            if (x[56] <= 41.18000030517578) {
                                                votes[0] += 1;
                                            }

                                            else {
                                                votes[2] += 1;
                                            }
                                        }

                                        else {
                                            votes[0] += 1;
                                        }
                                    }
                                }

                                else {
                                    votes[3] += 1;
                                }
                            }
                        }

                        // tree #3
                        if (x[54] <= 79.375) {
                            if (x[21] <= 242.16500091552734) {
                                if (x[37] <= 173.91500091552734) {
                                    if (x[30] <= 291.99000549316406) {
                                        votes[3] += 1;
                                    }

                                    else {
                                        votes[2] += 1;
                                    }
                                }

                                else {
                                    if (x[18] <= 128.46999740600586) {
                                        if (x[19] <= 225.86000061035156) {
                                            votes[2] += 1;
                                        }

                                        else {
                                            votes[0] += 1;
                                        }
                                    }

                                    else {
                                        if (x[16] <= 144.20499420166016) {
                                            if (x[44] <= 177.11499786376953) {
                                                if (x[35] <= 191.53499603271484) {
                                                    if (x[42] <= 205.9749984741211) {
                                                        votes[2] += 1;
                                                    }

                                                    else {
                                                        votes[0] += 1;
                                                    }
                                                }

                                                else {
                                                    if (x[26] <= 297.4700012207031) {
                                                        if (x[40] <= 266.82000732421875) {
                                                            votes[1] += 1;
                                                        }

                                                        else {
                                                            if (x[9] <= 87.3499984741211) {
                                                                votes[3] += 1;
                                                            }

                                                            else {
                                                                votes[1] += 1;
                                                            }
                                                        }
                                                    }

                                                    else {
                                                        votes[3] += 1;
                                                    }
                                                }
                                            }

                                            else {
                                                if (x[63] <= 19.519999504089355) {
                                                    votes[3] += 1;
                                                }

                                                else {
                                                    votes[1] += 1;
                                                }
                                            }
                                        }

                                        else {
                                            if (x[54] <= 58.744998931884766) {
                                                if (x[22] <= 262.36500549316406) {
                                                    votes[1] += 1;
                                                }

                                                else {
                                                    if (x[14] <= 139.41499710083008) {
                                                        votes[0] += 1;
                                                    }

                                                    else {
                                                        votes[3] += 1;
                                                    }
                                                }
                                            }

                                            else {
                                                if (x[53] <= 73.91500091552734) {
                                                    if (x[38] <= 237.54999542236328) {
                                                        votes[3] += 1;
                                                    }

                                                    else {
                                                        votes[0] += 1;
                                                    }
                                                }

                                                else {
                                                    votes[2] += 1;
                                                }
                                            }
                                        }
                                    }
                                }
                            }

                            else {
                                if (x[22] <= 225.1750030517578) {
                                    votes[2] += 1;
                                }

                                else {
                                    if (x[1] <= 23.864999771118164) {
                                        votes[3] += 1;
                                    }

                                    else {
                                        votes[0] += 1;
                                    }
                                }
                            }
                        }

                        else {
                            votes[0] += 1;
                        }

                        // tree #4
                        if (x[45] <= 181.46499633789062) {
                            if (x[43] <= 196.1550064086914) {
                                if (x[61] <= 18.75999927520752) {
                                    if (x[33] <= 230.80500030517578) {
                                        if (x[32] <= 289.8350067138672) {
                                            votes[3] += 1;
                                        }

                                        else {
                                            votes[2] += 1;
                                        }
                                    }

                                    else {
                                        votes[1] += 1;
                                    }
                                }

                                else {
                                    if (x[51] <= 94.10499954223633) {
                                        if (x[16] <= 122.43000411987305) {
                                            votes[1] += 1;
                                        }

                                        else {
                                            votes[2] += 1;
                                        }
                                    }

                                    else {
                                        if (x[37] <= 222.40499877929688) {
                                            votes[0] += 1;
                                        }

                                        else {
                                            votes[3] += 1;
                                        }
                                    }
                                }
                            }

                            else {
                                if (x[13] <= 74.56499862670898) {
                                    if (x[53] <= 80.29999923706055) {
                                        votes[1] += 1;
                                    }

                                    else {
                                        votes[2] += 1;
                                    }
                                }

                                else {
                                    if (x[32] <= 292.8349914550781) {
                                        if (x[51] <= 116.04499816894531) {
                                            if (x[13] <= 110.08499908447266) {
                                                votes[3] += 1;
                                            }

                                            else {
                                                if (x[18] <= 196.24500274658203) {
                                                    votes[3] += 1;
                                                }

                                                else {
                                                    votes[2] += 1;
                                                }
                                            }
                                        }

                                        else {
                                            votes[1] += 1;
                                        }
                                    }

                                    else {
                                        votes[0] += 1;
                                    }
                                }
                            }
                        }

                        else {
                            if (x[29] <= 291.2949981689453) {
                                if (x[6] <= 53.34000015258789) {
                                    if (x[13] <= 89.72999954223633) {
                                        votes[1] += 1;
                                    }

                                    else {
                                        if (x[46] <= 97.64500045776367) {
                                            if (x[63] <= 20.640000343322754) {
                                                votes[2] += 1;
                                            }

                                            else {
                                                votes[1] += 1;
                                            }
                                        }

                                        else {
                                            if (x[31] <= 362.2949981689453) {
                                                if (x[19] <= 179.52000427246094) {
                                                    votes[0] += 1;
                                                }

                                                else {
                                                    votes[2] += 1;
                                                }
                                            }

                                            else {
                                                votes[2] += 1;
                                            }
                                        }
                                    }
                                }

                                else {
                                    votes[3] += 1;
                                }
                            }

                            else {
                                votes[3] += 1;
                            }
                        }

                        // tree #5
                        if (x[8] <= 50.32499885559082) {
                            if (x[15] <= 115.78499984741211) {
                                if (x[62] <= 15.015000343322754) {
                                    votes[2] += 1;
                                }

                                else {
                                    if (x[48] <= 53.09000015258789) {
                                        votes[0] += 1;
                                    }

                                    else {
                                        if (x[25] <= 181.79000091552734) {
                                            votes[3] += 1;
                                        }

                                        else {
                                            if (x[21] <= 182.1050033569336) {
                                                votes[2] += 1;
                                            }

                                            else {
                                                votes[1] += 1;
                                            }
                                        }
                                    }
                                }
                            }

                            else {
                                if (x[25] <= 185.42000579833984) {
                                    votes[3] += 1;
                                }

                                else {
                                    if (x[36] <= 201.38999938964844) {
                                        votes[1] += 1;
                                    }

                                    else {
                                        votes[0] += 1;
                                    }
                                }
                            }
                        }

                        else {
                            if (x[10] <= 50.2450008392334) {
                                votes[2] += 1;
                            }

                            else {
                                if (x[56] <= 36.1200008392334) {
                                    if (x[32] <= 160.41000366210938) {
                                        votes[0] += 1;
                                    }

                                    else {
                                        votes[3] += 1;
                                    }
                                }

                                else {
                                    if (x[17] <= 164.82500457763672) {
                                        if (x[32] <= 290.8350067138672) {
                                            if (x[46] <= 123.31999969482422) {
                                                votes[2] += 1;
                                            }

                                            else {
                                                if (x[49] <= 140.11000061035156) {
                                                    votes[1] += 1;
                                                }

                                                else {
                                                    votes[2] += 1;
                                                }
                                            }
                                        }

                                        else {
                                            votes[0] += 1;
                                        }
                                    }

                                    else {
                                        if (x[24] <= 228.0749969482422) {
                                            if (x[39] <= 171.93000030517578) {
                                                votes[2] += 1;
                                            }

                                            else {
                                                votes[3] += 1;
                                            }
                                        }

                                        else {
                                            if (x[6] <= 33.90499973297119) {
                                                votes[2] += 1;
                                            }

                                            else {
                                                if (x[37] <= 208.4199981689453) {
                                                    votes[1] += 1;
                                                }

                                                else {
                                                    votes[0] += 1;
                                                }
                                            }
                                        }
                                    }
                                }
                            }
                        }

                        // tree #6
                        if (x[19] <= 145.54000091552734) {
                            if (x[22] <= 159.68500518798828) {
                                if (x[29] <= 287.8500061035156) {
                                    votes[2] += 1;
                                }

                                else {
                                    votes[3] += 1;
                                }
                            }

                            else {
                                if (x[45] <= 166.69499969482422) {
                                    if (x[15] <= 135.76000213623047) {
                                        votes[3] += 1;
                                    }

                                    else {
                                        votes[0] += 1;
                                    }
                                }

                                else {
                                    votes[0] += 1;
                                }
                            }
                        }

                        else {
                            if (x[18] <= 137.78500366210938) {
                                votes[2] += 1;
                            }

                            else {
                                if (x[15] <= 128.17499542236328) {
                                    if (x[28] <= 297.50999450683594) {
                                        if (x[3] <= 20.289999961853027) {
                                            if (x[14] <= 141.7200050354004) {
                                                votes[2] += 1;
                                            }

                                            else {
                                                votes[3] += 1;
                                            }
                                        }

                                        else {
                                            if (x[1] <= 13.78499984741211) {
                                                if (x[46] <= 152.28500366210938) {
                                                    votes[0] += 1;
                                                }

                                                else {
                                                    votes[2] += 1;
                                                }
                                            }

                                            else {
                                                votes[1] += 1;
                                            }
                                        }
                                    }

                                    else {
                                        votes[2] += 1;
                                    }
                                }

                                else {
                                    if (x[56] <= 45.685001373291016) {
                                        if (x[15] <= 175.20000457763672) {
                                            if (x[18] <= 150.9550018310547) {
                                                votes[1] += 1;
                                            }

                                            else {
                                                votes[3] += 1;
                                            }
                                        }

                                        else {
                                            votes[2] += 1;
                                        }
                                    }

                                    else {
                                        if (x[1] <= 20.44499969482422) {
                                            if (x[14] <= 89.03499984741211) {
                                                votes[0] += 1;
                                            }

                                            else {
                                                votes[1] += 1;
                                            }
                                        }

                                        else {
                                            votes[2] += 1;
                                        }
                                    }
                                }
                            }
                        }

                        // tree #7
                        if (x[59] <= 40.40999984741211) {
                            if (x[57] <= 47.81999969482422) {
                                if (x[34] <= 188.77999877929688) {
                                    if (x[25] <= 265.1999969482422) {
                                        if (x[40] <= 217.00499725341797) {
                                            votes[2] += 1;
                                        }

                                        else {
                                            votes[3] += 1;
                                        }
                                    }

                                    else {
                                        votes[1] += 1;
                                    }
                                }

                                else {
                                    if (x[37] <= 230.7949981689453) {
                                        if (x[26] <= 280.68499755859375) {
                                            if (x[62] <= 20.364999771118164) {
                                                if (x[14] <= 144.25) {
                                                    votes[1] += 1;
                                                }

                                                else {
                                                    if (x[57] <= 43.02000045776367) {
                                                        votes[1] += 1;
                                                    }

                                                    else {
                                                        votes[2] += 1;
                                                    }
                                                }
                                            }

                                            else {
                                                if (x[52] <= 86.65999984741211) {
                                                    votes[2] += 1;
                                                }

                                                else {
                                                    votes[0] += 1;
                                                }
                                            }
                                        }

                                        else {
                                            votes[2] += 1;
                                        }
                                    }

                                    else {
                                        if (x[40] <= 206.4499969482422) {
                                            if (x[21] <= 142.4499969482422) {
                                                votes[0] += 1;
                                            }

                                            else {
                                                votes[3] += 1;
                                            }
                                        }

                                        else {
                                            if (x[7] <= 48.40500068664551) {
                                                if (x[36] <= 235.2699966430664) {
                                                    votes[2] += 1;
                                                }

                                                else {
                                                    if (x[63] <= 14.15999984741211) {
                                                        votes[0] += 1;
                                                    }

                                                    else {
                                                        votes[3] += 1;
                                                    }
                                                }
                                            }

                                            else {
                                                if (x[10] <= 58.665000915527344) {
                                                    votes[2] += 1;
                                                }

                                                else {
                                                    votes[1] += 1;
                                                }
                                            }
                                        }
                                    }
                                }
                            }

                            else {
                                if (x[48] <= 146.6300048828125) {
                                    votes[0] += 1;
                                }

                                else {
                                    if (x[62] <= 22.214999198913574) {
                                        votes[3] += 1;
                                    }

                                    else {
                                        votes[2] += 1;
                                    }
                                }
                            }
                        }

                        else {
                            if (x[48] <= 144.3550033569336) {
                                votes[0] += 1;
                            }

                            else {
                                votes[1] += 1;
                            }
                        }

                        // tree #8
                        if (x[35] <= 146.80999755859375) {
                            votes[2] += 1;
                        }

                        else {
                            if (x[22] <= 253.87499237060547) {
                                if (x[61] <= 17.559999465942383) {
                                    if (x[2] <= 17.33500051498413) {
                                        votes[3] += 1;
                                    }

                                    else {
                                        votes[0] += 1;
                                    }
                                }

                                else {
                                    if (x[9] <= 57.47500038146973) {
                                        if (x[17] <= 94.65499877929688) {
                                            if (x[0] <= 21.640000343322754) {
                                                votes[3] += 1;
                                            }

                                            else {
                                                votes[2] += 1;
                                            }
                                        }

                                        else {
                                            if (x[55] <= 40.47999954223633) {
                                                votes[1] += 1;
                                            }

                                            else {
                                                if (x[1] <= 17.200000286102295) {
                                                    votes[0] += 1;
                                                }

                                                else {
                                                    votes[2] += 1;
                                                }
                                            }
                                        }
                                    }

                                    else {
                                        if (x[24] <= 271.4949951171875) {
                                            if (x[5] <= 35.77499961853027) {
                                                if (x[37] <= 241.52000427246094) {
                                                    if (x[50] <= 110.08000183105469) {
                                                        votes[2] += 1;
                                                    }

                                                    else {
                                                        votes[1] += 1;
                                                    }
                                                }

                                                else {
                                                    votes[3] += 1;
                                                }
                                            }

                                            else {
                                                votes[1] += 1;
                                            }
                                        }

                                        else {
                                            if (x[27] <= 269.1499938964844) {
                                                votes[3] += 1;
                                            }

                                            else {
                                                votes[2] += 1;
                                            }
                                        }
                                    }
                                }
                            }

                            else {
                                if (x[6] <= 55.4950008392334) {
                                    if (x[2] <= 18.40499973297119) {
                                        votes[2] += 1;
                                    }

                                    else {
                                        votes[0] += 1;
                                    }
                                }

                                else {
                                    if (x[46] <= 111.375) {
                                        votes[3] += 1;
                                    }

                                    else {
                                        votes[1] += 1;
                                    }
                                }
                            }
                        }

                        // tree #9
                        if (x[31] <= 238.36499786376953) {
                            if (x[15] <= 127.41499710083008) {
                                if (x[3] <= 28.72499942779541) {
                                    if (x[16] <= 95.4000015258789) {
                                        if (x[31] <= 203.38500213623047) {
                                            votes[0] += 1;
                                        }

                                        else {
                                            votes[2] += 1;
                                        }
                                    }

                                    else {
                                        if (x[20] <= 170.99500274658203) {
                                            votes[1] += 1;
                                        }

                                        else {
                                            if (x[26] <= 250.8499984741211) {
                                                votes[3] += 1;
                                            }

                                            else {
                                                votes[1] += 1;
                                            }
                                        }
                                    }
                                }

                                else {
                                    if (x[4] <= 31.529998779296875) {
                                        votes[3] += 1;
                                    }

                                    else {
                                        if (x[33] <= 330.7900085449219) {
                                            votes[2] += 1;
                                        }

                                        else {
                                            votes[0] += 1;
                                        }
                                    }
                                }
                            }

                            else {
                                if (x[45] <= 155.77000427246094) {
                                    if (x[47] <= 140.3499984741211) {
                                        if (x[26] <= 233.125) {
                                            votes[2] += 1;
                                        }

                                        else {
                                            votes[0] += 1;
                                        }
                                    }

                                    else {
                                        votes[1] += 1;
                                    }
                                }

                                else {
                                    votes[0] += 1;
                                }
                            }
                        }

                        else {
                            if (x[40] <= 146.5) {
                                if (x[17] <= 94.06000137329102) {
                                    votes[1] += 1;
                                }

                                else {
                                    votes[0] += 1;
                                }
                            }

                            else {
                                if (x[35] <= 211.9499969482422) {
                                    votes[2] += 1;
                                }

                                else {
                                    if (x[22] <= 230.0250015258789) {
                                        if (x[30] <= 211.41000366210938) {
                                            if (x[33] <= 273.0900115966797) {
                                                votes[2] += 1;
                                            }

                                            else {
                                                votes[3] += 1;
                                            }
                                        }

                                        else {
                                            votes[3] += 1;
                                        }
                                    }

                                    else {
                                        if (x[44] <= 161.6699981689453) {
                                            votes[2] += 1;
                                        }

                                        else {
                                            if (x[53] <= 71.8799991607666) {
                                                if (x[47] <= 132.62500381469727) {
                                                    votes[1] += 1;
                                                }

                                                else {
                                                    votes[0] += 1;
                                                }
                                            }

                                            else {
                                                votes[3] += 1;
                                            }
                                        }
                                    }
                                }
                            }
                        }

                        // tree #10
                        if (x[12] <= 78.29499816894531) {
                            if (x[15] <= 106.18000030517578) {
                                if (x[23] <= 185.76499938964844) {
                                    votes[3] += 1;
                                }

                                else {
                                    votes[2] += 1;
                                }
                            }

                            else {
                                votes[3] += 1;
                            }
                        }

                        else {
                            if (x[3] <= 31.135000228881836) {
                                if (x[0] <= 23.960000038146973) {
                                    if (x[19] <= 147.59500122070312) {
                                        if (x[51] <= 82.94499969482422) {
                                            votes[0] += 1;
                                        }

                                        else {
                                            votes[3] += 1;
                                        }
                                    }

                                    else {
                                        if (x[27] <= 264.86000061035156) {
                                            if (x[29] <= 234.61499786376953) {
                                                if (x[19] <= 171.625) {
                                                    votes[1] += 1;
                                                }

                                                else {
                                                    votes[3] += 1;
                                                }
                                            }

                                            else {
                                                if (x[10] <= 84.36999893188477) {
                                                    votes[1] += 1;
                                                }

                                                else {
                                                    votes[2] += 1;
                                                }
                                            }
                                        }

                                        else {
                                            if (x[62] <= 15.470000267028809) {
                                                if (x[40] <= 245.71500396728516) {
                                                    votes[0] += 1;
                                                }

                                                else {
                                                    votes[3] += 1;
                                                }
                                            }

                                            else {
                                                votes[2] += 1;
                                            }
                                        }
                                    }
                                }

                                else {
                                    if (x[30] <= 217.375) {
                                        if (x[37] <= 258.3050003051758) {
                                            votes[3] += 1;
                                        }

                                        else {
                                            votes[2] += 1;
                                        }
                                    }

                                    else {
                                        if (x[6] <= 61.65500068664551) {
                                            if (x[12] <= 115.29999923706055) {
                                                votes[0] += 1;
                                            }

                                            else {
                                                votes[1] += 1;
                                            }
                                        }

                                        else {
                                            votes[1] += 1;
                                        }
                                    }
                                }
                            }

                            else {
                                if (x[25] <= 269.2850036621094) {
                                    votes[3] += 1;
                                }

                                else {
                                    votes[1] += 1;
                                }
                            }
                        }

                        // tree #11
                        if (x[45] <= 220.3249969482422) {
                            if (x[17] <= 189.61499786376953) {
                                if (x[9] <= 49.5) {
                                    if (x[18] <= 163.48500061035156) {
                                        votes[0] += 1;
                                    }

                                    else {
                                        if (x[6] <= 34.38499927520752) {
                                            votes[2] += 1;
                                        }

                                        else {
                                            if (x[33] <= 278.06500244140625) {
                                                votes[0] += 1;
                                            }

                                            else {
                                                if (x[7] <= 28.704999923706055) {
                                                    votes[1] += 1;
                                                }

                                                else {
                                                    votes[3] += 1;
                                                }
                                            }
                                        }
                                    }
                                }

                                else {
                                    if (x[1] <= 19.954999923706055) {
                                        if (x[18] <= 163.8000030517578) {
                                            if (x[51] <= 37.38000011444092) {
                                                votes[1] += 1;
                                            }

                                            else {
                                                votes[2] += 1;
                                            }
                                        }

                                        else {
                                            if (x[61] <= 23.34999942779541) {
                                                votes[3] += 1;
                                            }

                                            else {
                                                if (x[18] <= 183.71500396728516) {
                                                    votes[0] += 1;
                                                }

                                                else {
                                                    votes[2] += 1;
                                                }
                                            }
                                        }
                                    }

                                    else {
                                        if (x[58] <= 31.964999198913574) {
                                            if (x[61] <= 18.005000114440918) {
                                                votes[0] += 1;
                                            }

                                            else {
                                                if (x[43] <= 221.6750030517578) {
                                                    if (x[19] <= 194.27999877929688) {
                                                        votes[3] += 1;
                                                    }

                                                    else {
                                                        votes[1] += 1;
                                                    }
                                                }

                                                else {
                                                    votes[1] += 1;
                                                }
                                            }
                                        }

                                        else {
                                            if (x[52] <= 63.8799991607666) {
                                                if (x[58] <= 34.7549991607666) {
                                                    votes[3] += 1;
                                                }

                                                else {
                                                    votes[2] += 1;
                                                }
                                            }

                                            else {
                                                if (x[42] <= 130.13000106811523) {
                                                    if (x[2] <= 15.90999984741211) {
                                                        votes[1] += 1;
                                                    }

                                                    else {
                                                        votes[2] += 1;
                                                    }
                                                }

                                                else {
                                                    votes[1] += 1;
                                                }
                                            }
                                        }
                                    }
                                }
                            }

                            else {
                                if (x[54] <= 54.05999946594238) {
                                    votes[2] += 1;
                                }

                                else {
                                    if (x[51] <= 106.375) {
                                        votes[0] += 1;
                                    }

                                    else {
                                        votes[3] += 1;
                                    }
                                }
                            }
                        }

                        else {
                            if (x[28] <= 206.11499786376953) {
                                votes[1] += 1;
                            }

                            else {
                                votes[3] += 1;
                            }
                        }

                        // tree #12
                        if (x[5] <= 27.34000015258789) {
                            if (x[38] <= 228.47999572753906) {
                                votes[3] += 1;
                            }

                            else {
                                votes[2] += 1;
                            }
                        }

                        else {
                            if (x[17] <= 100.02999877929688) {
                                votes[3] += 1;
                            }

                            else {
                                if (x[2] <= 19.204999923706055) {
                                    if (x[56] <= 46.25) {
                                        if (x[3] <= 29.829999923706055) {
                                            votes[1] += 1;
                                        }

                                        else {
                                            votes[2] += 1;
                                        }
                                    }

                                    else {
                                        if (x[62] <= 20.03499984741211) {
                                            votes[1] += 1;
                                        }

                                        else {
                                            votes[2] += 1;
                                        }
                                    }
                                }

                                else {
                                    if (x[37] <= 204.68499755859375) {
                                        if (x[47] <= 130.6999969482422) {
                                            votes[1] += 1;
                                        }

                                        else {
                                            if (x[38] <= 238.45499420166016) {
                                                if (x[14] <= 105.82999801635742) {
                                                    votes[1] += 1;
                                                }

                                                else {
                                                    votes[0] += 1;
                                                }
                                            }

                                            else {
                                                votes[3] += 1;
                                            }
                                        }
                                    }

                                    else {
                                        if (x[47] <= 143.93499755859375) {
                                            if (x[62] <= 18.96500015258789) {
                                                if (x[29] <= 221.79999542236328) {
                                                    votes[0] += 1;
                                                }

                                                else {
                                                    votes[2] += 1;
                                                }
                                            }

                                            else {
                                                if (x[48] <= 180.25499725341797) {
                                                    if (x[57] <= 27.024999618530273) {
                                                        votes[1] += 1;
                                                    }

                                                    else {
                                                        votes[3] += 1;
                                                    }
                                                }

                                                else {
                                                    votes[2] += 1;
                                                }
                                            }
                                        }

                                        else {
                                            if (x[7] <= 45.5) {
                                                if (x[2] <= 27.18000030517578) {
                                                    votes[0] += 1;
                                                }

                                                else {
                                                    votes[2] += 1;
                                                }
                                            }

                                            else {
                                                if (x[34] <= 222.29000091552734) {
                                                    votes[1] += 1;
                                                }

                                                else {
                                                    votes[0] += 1;
                                                }
                                            }
                                        }
                                    }
                                }
                            }
                        }

                        // tree #13
                        if (x[9] <= 49.625) {
                            if (x[56] <= 62.10499954223633) {
                                if (x[42] <= 185.95499420166016) {
                                    if (x[45] <= 211.34000396728516) {
                                        votes[2] += 1;
                                    }

                                    else {
                                        votes[0] += 1;
                                    }
                                }

                                else {
                                    if (x[31] <= 362.2949981689453) {
                                        votes[0] += 1;
                                    }

                                    else {
                                        votes[2] += 1;
                                    }
                                }
                            }

                            else {
                                votes[1] += 1;
                            }
                        }

                        else {
                            if (x[6] <= 34.78000068664551) {
                                if (x[43] <= 173.91000366210938) {
                                    if (x[29] <= 282.4250030517578) {
                                        votes[2] += 1;
                                    }

                                    else {
                                        votes[3] += 1;
                                    }
                                }

                                else {
                                    if (x[6] <= 20.47000026702881) {
                                        votes[0] += 1;
                                    }

                                    else {
                                        if (x[7] <= 36.394999504089355) {
                                            votes[0] += 1;
                                        }

                                        else {
                                            votes[1] += 1;
                                        }
                                    }
                                }
                            }

                            else {
                                if (x[19] <= 126.65999984741211) {
                                    votes[2] += 1;
                                }

                                else {
                                    if (x[9] <= 86.34000015258789) {
                                        if (x[18] <= 171.82999420166016) {
                                            if (x[60] <= 28.070000648498535) {
                                                if (x[17] <= 171.69499969482422) {
                                                    if (x[49] <= 134.125) {
                                                        votes[3] += 1;
                                                    }

                                                    else {
                                                        if (x[39] <= 139.03500366210938) {
                                                            votes[0] += 1;
                                                        }

                                                        else {
                                                            if (x[2] <= 20.494999885559082) {
                                                                votes[2] += 1;
                                                            }

                                                            else {
                                                                votes[1] += 1;
                                                            }
                                                        }
                                                    }
                                                }

                                                else {
                                                    votes[0] += 1;
                                                }
                                            }

                                            else {
                                                votes[3] += 1;
                                            }
                                        }

                                        else {
                                            if (x[32] <= 180.3949966430664) {
                                                votes[1] += 1;
                                            }

                                            else {
                                                votes[3] += 1;
                                            }
                                        }
                                    }

                                    else {
                                        if (x[25] <= 126.03000259399414) {
                                            votes[3] += 1;
                                        }

                                        else {
                                            votes[1] += 1;
                                        }
                                    }
                                }
                            }
                        }

                        // tree #14
                        if (x[6] <= 30.390000343322754) {
                            if (x[52] <= 89.79999923706055) {
                                votes[2] += 1;
                            }

                            else {
                                votes[0] += 1;
                            }
                        }

                        else {
                            if (x[45] <= 186.28500366210938) {
                                if (x[48] <= 130.7050018310547) {
                                    if (x[58] <= 37.60500144958496) {
                                        if (x[46] <= 158.8550033569336) {
                                            if (x[12] <= 108.42499923706055) {
                                                if (x[1] <= 20.15999984741211) {
                                                    if (x[9] <= 64.30999755859375) {
                                                        votes[3] += 1;
                                                    }

                                                    else {
                                                        votes[1] += 1;
                                                    }
                                                }

                                                else {
                                                    votes[1] += 1;
                                                }
                                            }

                                            else {
                                                votes[0] += 1;
                                            }
                                        }

                                        else {
                                            if (x[55] <= 46.60499954223633) {
                                                votes[1] += 1;
                                            }

                                            else {
                                                votes[2] += 1;
                                            }
                                        }
                                    }

                                    else {
                                        if (x[18] <= 164.12000274658203) {
                                            votes[2] += 1;
                                        }

                                        else {
                                            votes[3] += 1;
                                        }
                                    }
                                }

                                else {
                                    if (x[35] <= 224.10499572753906) {
                                        if (x[25] <= 196.3000030517578) {
                                            votes[0] += 1;
                                        }

                                        else {
                                            if (x[14] <= 126.29999923706055) {
                                                votes[2] += 1;
                                            }

                                            else {
                                                votes[1] += 1;
                                            }
                                        }
                                    }

                                    else {
                                        if (x[52] <= 76.10000228881836) {
                                            if (x[35] <= 258.6199951171875) {
                                                votes[2] += 1;
                                            }

                                            else {
                                                if (x[37] <= 190.6999969482422) {
                                                    votes[3] += 1;
                                                }

                                                else {
                                                    votes[0] += 1;
                                                }
                                            }
                                        }

                                        else {
                                            votes[3] += 1;
                                        }
                                    }
                                }
                            }

                            else {
                                if (x[28] <= 186.6699981689453) {
                                    if (x[10] <= 78.27000045776367) {
                                        votes[1] += 1;
                                    }

                                    else {
                                        votes[0] += 1;
                                    }
                                }

                                else {
                                    if (x[9] <= 65.19999885559082) {
                                        votes[0] += 1;
                                    }

                                    else {
                                        votes[3] += 1;
                                    }
                                }
                            }
                        }

                        // tree #15
                        if (x[0] <= 24.0) {
                            if (x[33] <= 256.1750030517578) {
                                if (x[10] <= 76.23500061035156) {
                                    if (x[56] <= 42.02499961853027) {
                                        if (x[16] <= 174.26499938964844) {
                                            votes[1] += 1;
                                        }

                                        else {
                                            votes[3] += 1;
                                        }
                                    }

                                    else {
                                        if (x[9] <= 60.76499938964844) {
                                            if (x[20] <= 142.19499969482422) {
                                                votes[0] += 1;
                                            }

                                            else {
                                                if (x[20] <= 209.27499389648438) {
                                                    votes[1] += 1;
                                                }

                                                else {
                                                    if (x[55] <= 66.84499931335449) {
                                                        votes[2] += 1;
                                                    }

                                                    else {
                                                        votes[3] += 1;
                                                    }
                                                }
                                            }
                                        }

                                        else {
                                            votes[3] += 1;
                                        }
                                    }
                                }

                                else {
                                    if (x[59] <= 29.260000228881836) {
                                        if (x[47] <= 131.25) {
                                            votes[2] += 1;
                                        }

                                        else {
                                            votes[3] += 1;
                                        }
                                    }

                                    else {
                                        if (x[0] <= 14.960000038146973) {
                                            votes[1] += 1;
                                        }

                                        else {
                                            votes[2] += 1;
                                        }
                                    }
                                }
                            }

                            else {
                                if (x[56] <= 56.19499969482422) {
                                    if (x[17] <= 202.75) {
                                        votes[1] += 1;
                                    }

                                    else {
                                        votes[3] += 1;
                                    }
                                }

                                else {
                                    votes[0] += 1;
                                }
                            }
                        }

                        else {
                            if (x[36] <= 238.13500213623047) {
                                if (x[15] <= 150.1699981689453) {
                                    votes[0] += 1;
                                }

                                else {
                                    if (x[21] <= 120.8900032043457) {
                                        votes[0] += 1;
                                    }

                                    else {
                                        votes[1] += 1;
                                    }
                                }
                            }

                            else {
                                if (x[51] <= 56.165000915527344) {
                                    votes[3] += 1;
                                }

                                else {
                                    if (x[35] <= 290.7050018310547) {
                                        if (x[62] <= 21.59999942779541) {
                                            if (x[28] <= 213.40999603271484) {
                                                votes[1] += 1;
                                            }

                                            else {
                                                votes[2] += 1;
                                            }
                                        }

                                        else {
                                            votes[2] += 1;
                                        }
                                    }

                                    else {
                                        votes[0] += 1;
                                    }
                                }
                            }
                        }

                        // tree #16
                        if (x[16] <= 90.43999862670898) {
                            votes[0] += 1;
                        }

                        else {
                            if (x[11] <= 109.93999862670898) {
                                if (x[24] <= 246.05500030517578) {
                                    if (x[62] <= 20.364999771118164) {
                                        if (x[3] <= 23.34999942779541) {
                                            if (x[12] <= 104.14500045776367) {
                                                if (x[57] <= 30.630000114440918) {
                                                    votes[1] += 1;
                                                }

                                                else {
                                                    if (x[18] <= 206.52000427246094) {
                                                        votes[0] += 1;
                                                    }

                                                    else {
                                                        votes[3] += 1;
                                                    }
                                                }
                                            }

                                            else {
                                                votes[2] += 1;
                                            }
                                        }

                                        else {
                                            votes[1] += 1;
                                        }
                                    }

                                    else {
                                        if (x[41] <= 198.08499908447266) {
                                            votes[3] += 1;
                                        }

                                        else {
                                            if (x[5] <= 38.42500114440918) {
                                                votes[1] += 1;
                                            }

                                            else {
                                                if (x[53] <= 86.11000061035156) {
                                                    votes[2] += 1;
                                                }

                                                else {
                                                    votes[3] += 1;
                                                }
                                            }
                                        }
                                    }
                                }

                                else {
                                    if (x[63] <= 16.640000343322754) {
                                        if (x[40] <= 94.14999771118164) {
                                            votes[1] += 1;
                                        }

                                        else {
                                            votes[0] += 1;
                                        }
                                    }

                                    else {
                                        if (x[42] <= 203.27999877929688) {
                                            votes[2] += 1;
                                        }

                                        else {
                                            if (x[56] <= 45.68499946594238) {
                                                if (x[53] <= 88.29000091552734) {
                                                    votes[3] += 1;
                                                }

                                                else {
                                                    votes[1] += 1;
                                                }
                                            }

                                            else {
                                                votes[0] += 1;
                                            }
                                        }
                                    }
                                }
                            }

                            else {
                                if (x[24] <= 162.2800064086914) {
                                    votes[2] += 1;
                                }

                                else {
                                    if (x[19] <= 180.2050018310547) {
                                        votes[0] += 1;
                                    }

                                    else {
                                        votes[3] += 1;
                                    }
                                }
                            }
                        }

                        // tree #17
                        if (x[26] <= 280.68499755859375) {
                            if (x[57] <= 48.05999946594238) {
                                if (x[28] <= 234.31499481201172) {
                                    if (x[46] <= 123.91500091552734) {
                                        votes[1] += 1;
                                    }

                                    else {
                                        if (x[40] <= 216.58499908447266) {
                                            if (x[13] <= 101.98500061035156) {
                                                votes[3] += 1;
                                            }

                                            else {
                                                if (x[20] <= 167.71500396728516) {
                                                    votes[1] += 1;
                                                }

                                                else {
                                                    votes[2] += 1;
                                                }
                                            }
                                        }

                                        else {
                                            if (x[61] <= 21.829999923706055) {
                                                votes[3] += 1;
                                            }

                                            else {
                                                votes[0] += 1;
                                            }
                                        }
                                    }
                                }

                                else {
                                    if (x[26] <= 264.36500549316406) {
                                        if (x[40] <= 284.55499267578125) {
                                            if (x[62] <= 22.625) {
                                                if (x[54] <= 72.54000091552734) {
                                                    votes[2] += 1;
                                                }

                                                else {
                                                    votes[1] += 1;
                                                }
                                            }

                                            else {
                                                if (x[39] <= 264.0400085449219) {
                                                    votes[1] += 1;
                                                }

                                                else {
                                                    votes[2] += 1;
                                                }
                                            }
                                        }

                                        else {
                                            if (x[43] <= 220.9499969482422) {
                                                votes[3] += 1;
                                            }

                                            else {
                                                votes[0] += 1;
                                            }
                                        }
                                    }

                                    else {
                                        votes[1] += 1;
                                    }
                                }
                            }

                            else {
                                if (x[52] <= 50.510000228881836) {
                                    votes[1] += 1;
                                }

                                else {
                                    if (x[26] <= 262.9649963378906) {
                                        if (x[47] <= 123.80499649047852) {
                                            votes[1] += 1;
                                        }

                                        else {
                                            votes[0] += 1;
                                        }
                                    }

                                    else {
                                        votes[3] += 1;
                                    }
                                }
                            }
                        }

                        else {
                            if (x[13] <= 105.51499938964844) {
                                if (x[56] <= 42.68000030517578) {
                                    if (x[54] <= 68.23999977111816) {
                                        votes[2] += 1;
                                    }

                                    else {
                                        votes[0] += 1;
                                    }
                                }

                                else {
                                    if (x[58] <= 29.244999885559082) {
                                        votes[2] += 1;
                                    }

                                    else {
                                        votes[3] += 1;
                                    }
                                }
                            }

                            else {
                                votes[0] += 1;
                            }
                        }

                        // tree #18
                        if (x[0] <= 23.800000190734863) {
                            if (x[44] <= 79.29500198364258) {
                                votes[2] += 1;
                            }

                            else {
                                if (x[17] <= 115.25499725341797) {
                                    votes[3] += 1;
                                }

                                else {
                                    if (x[21] <= 241.01000213623047) {
                                        if (x[62] <= 13.78499984741211) {
                                            if (x[31] <= 295.3300018310547) {
                                                votes[0] += 1;
                                            }

                                            else {
                                                votes[2] += 1;
                                            }
                                        }

                                        else {
                                            if (x[54] <= 80.26000213623047) {
                                                if (x[22] <= 253.4699935913086) {
                                                    if (x[45] <= 120.12000274658203) {
                                                        votes[3] += 1;
                                                    }

                                                    else {
                                                        if (x[50] <= 123.58499908447266) {
                                                            if (x[29] <= 232.64500427246094) {
                                                                votes[1] += 1;
                                                            }

                                                            else {
                                                                votes[1] += 1;
                                                            }
                                                        }

                                                        else {
                                                            votes[3] += 1;
                                                        }
                                                    }
                                                }

                                                else {
                                                    if (x[25] <= 241.18000030517578) {
                                                        votes[0] += 1;
                                                    }

                                                    else {
                                                        votes[2] += 1;
                                                    }
                                                }
                                            }

                                            else {
                                                votes[3] += 1;
                                            }
                                        }
                                    }

                                    else {
                                        if (x[28] <= 233.3449935913086) {
                                            votes[0] += 1;
                                        }

                                        else {
                                            votes[2] += 1;
                                        }
                                    }
                                }
                            }
                        }

                        else {
                            if (x[22] <= 130.57500457763672) {
                                votes[2] += 1;
                            }

                            else {
                                if (x[42] <= 193.2699966430664) {
                                    if (x[21] <= 122.04500198364258) {
                                        votes[0] += 1;
                                    }

                                    else {
                                        if (x[11] <= 90.78999710083008) {
                                            votes[1] += 1;
                                        }

                                        else {
                                            if (x[20] <= 164.43000030517578) {
                                                votes[2] += 1;
                                            }

                                            else {
                                                votes[3] += 1;
                                            }
                                        }
                                    }
                                }

                                else {
                                    if (x[63] <= 18.440000534057617) {
                                        votes[3] += 1;
                                    }

                                    else {
                                        votes[0] += 1;
                                    }
                                }
                            }
                        }

                        // tree #19
                        if (x[22] <= 139.875) {
                            if (x[5] <= 34.88999938964844) {
                                votes[2] += 1;
                            }

                            else {
                                if (x[59] <= 28.22000026702881) {
                                    votes[0] += 1;
                                }

                                else {
                                    votes[3] += 1;
                                }
                            }
                        }

                        else {
                            if (x[25] <= 257.9499969482422) {
                                if (x[1] <= 19.954999923706055) {
                                    if (x[38] <= 253.87000274658203) {
                                        if (x[21] <= 216.37000274658203) {
                                            votes[2] += 1;
                                        }

                                        else {
                                            if (x[62] <= 20.734999656677246) {
                                                votes[2] += 1;
                                            }

                                            else {
                                                votes[3] += 1;
                                            }
                                        }
                                    }

                                    else {
                                        if (x[40] <= 223.76000213623047) {
                                            votes[0] += 1;
                                        }

                                        else {
                                            votes[3] += 1;
                                        }
                                    }
                                }

                                else {
                                    if (x[62] <= 24.520000457763672) {
                                        if (x[34] <= 296.7200012207031) {
                                            if (x[3] <= 26.515000343322754) {
                                                if (x[38] <= 238.00499725341797) {
                                                    votes[3] += 1;
                                                }

                                                else {
                                                    votes[0] += 1;
                                                }
                                            }

                                            else {
                                                votes[1] += 1;
                                            }
                                        }

                                        else {
                                            votes[0] += 1;
                                        }
                                    }

                                    else {
                                        if (x[28] <= 181.3249969482422) {
                                            votes[3] += 1;
                                        }

                                        else {
                                            votes[0] += 1;
                                        }
                                    }
                                }
                            }

                            else {
                                if (x[32] <= 310.32000732421875) {
                                    if (x[6] <= 51.81999969482422) {
                                        votes[1] += 1;
                                    }

                                    else {
                                        if (x[23] <= 133.83499908447266) {
                                            votes[1] += 1;
                                        }

                                        else {
                                            votes[3] += 1;
                                        }
                                    }
                                }

                                else {
                                    if (x[19] <= 185.01000213623047) {
                                        votes[0] += 1;
                                    }

                                    else {
                                        votes[2] += 1;
                                    }
                                }
                            }
                        }

                        // tree #20
                        if (x[6] <= 29.75) {
                            if (x[26] <= 237.32500457763672) {
                                votes[1] += 1;
                            }

                            else {
                                votes[2] += 1;
                            }
                        }

                        else {
                            if (x[40] <= 109.77000045776367) {
                                if (x[44] <= 197.3699951171875) {
                                    votes[0] += 1;
                                }

                                else {
                                    if (x[47] <= 152.2050018310547) {
                                        if (x[53] <= 51.554999351501465) {
                                            votes[0] += 1;
                                        }

                                        else {
                                            votes[2] += 1;
                                        }
                                    }

                                    else {
                                        votes[1] += 1;
                                    }
                                }
                            }

                            else {
                                if (x[22] <= 247.0) {
                                    if (x[33] <= 249.71500396728516) {
                                        if (x[28] <= 189.58999633789062) {
                                            if (x[26] <= 279.75) {
                                                votes[1] += 1;
                                            }

                                            else {
                                                votes[3] += 1;
